MTP
version = 1.1.0
potential_name = MTP1m
scaling = 7.638888888888893e-01
species_count = 5
potential_tag = 
radial_basis_type = RBChebyshev
	min_dist = 2.422550000000000e+00
	max_dist = 5.000000000000000e+00
	radial_basis_size = 8
	radial_funcs_count = 4
	radial_coeffs
		0-0
			{-2.768350402894299e-02, -5.471615749094377e-02, -3.196707729392459e-02, -1.648379369928109e-02, -2.081019472001232e-03, 1.473906720456809e-03, -4.055320558120940e-03, -3.004650769445761e-03}
			{-1.773203641674149e-03, 2.688099755048834e-03, 1.508118407821122e-03, -3.011298685172423e-03, -6.682196676111418e-03, -2.655774549440375e-03, 3.113381205377283e-03, 2.224236109290530e-03}
			{-2.038788475102777e-03, -2.409294043952554e-03, -1.455379737316196e-03, -1.639184608609208e-03, -1.668861153722358e-03, -5.269960073923668e-04, 5.368938383491728e-04, 3.757950497295558e-04}
			{-5.236541807749801e-03, -6.576497202916025e-03, -7.627263546252088e-03, -3.808323526801713e-03, 7.517733475255011e-04, 1.149301307618427e-03, -8.166266653359619e-04, -8.937858790129524e-04}
		0-1
			{-1.112301214025974e-01, -1.197118803514667e-01, -1.155516391024753e-01, -9.310586262859359e-02, -5.167389869477048e-02, -2.658760207529687e-02, -8.142397093801617e-03, 1.136369496010131e-04}
			{2.650432622643920e-02, 2.386424295441839e-03, 1.126174090958733e-02, 1.722471094764391e-02, 8.817364127941181e-03, 1.622806889568370e-03, -2.558676383842387e-03, -1.800125772815178e-03}
			{-5.037240456168316e-04, -7.158593515977995e-03, -4.382177642208471e-03, -1.389564725049872e-03, -8.713792172970289e-04, -1.087176567584690e-03, -1.055015064314982e-03, -4.241624497008238e-04}
			{-2.037568738343269e-01, -1.943498078157848e-01, 2.985181896725177e-02, 1.474396701171333e-01, 1.837662418397386e-01, 1.198241585840644e-01, 3.946199741202023e-02, 6.735357813253700e-03}
		0-2
			{-7.099134622437821e-02, -8.963770092298198e-02, 1.045297044212657e-02, 3.490435834889528e-02, 2.565822941968359e-03, 4.112279383380458e-03, 2.094687308087612e-02, 1.111893821105188e-02}
			{-3.858554338100287e-02, -1.087722820832356e-01, -1.291552380354822e-01, -1.112494308539775e-01, -6.238182944804482e-02, -3.674091137644810e-02, -2.448495484124551e-02, -1.157965403288108e-02}
			{-2.258452840473401e-02, -4.941986496121875e-02, -5.021047311327507e-02, -3.855140249764332e-02, -2.131585278394285e-02, -1.390858239351887e-02, -9.719617638975898e-03, -4.058508183520229e-03}
			{1.886308439599081e-01, 2.190758074505056e-01, -2.408024763774422e-02, 1.632608433148513e-03, 7.757251609588650e-02, -1.624782756637031e-02, -7.643003748431319e-02, -5.140638778102121e-02}
		0-3
			{-1.637890917757318e-01, -3.121241153328882e-01, -2.617449769226271e-01, -1.778887849018167e-01, -1.029830005803664e-01, -6.755699645062761e-02, -4.089810596348296e-02, -1.376494334997731e-02}
			{1.363501753086753e-01, 2.372871548712526e-01, 1.787510471126828e-01, 1.147854293737719e-01, 6.912412082654130e-02, 4.608201584088102e-02, 2.577231903855877e-02, 6.731382496553174e-03}
			{5.792409882113397e-03, 3.452391475868613e-03, -7.216275723446932e-04, -1.714478202332271e-03, -8.740166519195083e-04, -3.057818100827058e-04, -3.621808009057279e-04, -5.491347875614695e-04}
			{-4.563567074042432e-03, -4.046735938158165e-02, -7.346087118568688e-02, 5.715583501709257e-04, 2.576754833447939e-02, -3.980729180244129e-03, -2.319268959256439e-02, -7.035399906607116e-03}
		0-4
			{-6.175340805880377e-02, -9.448578145313989e-02, -3.986461849132733e-02, -1.239134298287911e-02, -8.808363852832778e-03, -1.471703722913452e-02, -1.076259711853790e-02, -3.954005484568228e-03}
			{8.034095488102312e-02, 1.171618658334517e-01, 7.093783680193799e-02, 1.458009880165200e-02, -2.509023755634007e-02, -5.442986973651612e-02, -4.577654413684441e-02, -1.941811038426862e-02}
			{1.065962693107947e-02, 1.252062097536865e-02, 6.326239691229548e-03, -2.776203061982374e-03, -9.342256381543110e-03, -1.545318055127059e-02, -1.256348609955936e-02, -5.283024562375757e-03}
			{4.580964419684776e-03, 2.096380416257027e-02, 1.111057606491599e-01, -1.266937903138623e-02, -6.048612814872431e-02, -6.490208962828274e-02, -3.270072601129729e-02, -3.094819192662290e-02}
		1-0
			{-2.180767392249157e-01, -4.061675828875917e-01, -3.654544123705752e-01, -2.560829508892978e-01, -1.113144519137517e-01, -3.113904762851612e-02, -1.120872269659411e-02, -5.461123739308358e-03}
			{-1.007504762588263e-01, -2.031123108085493e-01, -1.481150288352671e-01, -8.356830559833990e-02, -6.101340573350900e-02, -4.356953673397664e-02, -9.090818940860241e-03, 4.681598515830303e-03}
			{-9.377329267084707e-03, 1.069276828048312e-02, 6.440314554018625e-02, 2.956584543361223e-02, -5.831468627909064e-02, -7.910078474902145e-02, -3.555311709802823e-02, -3.861458782484971e-03}
			{1.795717640329509e-01, 2.000569810617671e-01, -5.409384539298893e-02, -1.634670993801316e-01, -1.643651902261900e-01, -9.613233598504853e-02, -2.786077036625345e-02, -4.219062447223958e-03}
		1-1
			{1.365753734518332e-01, 2.442745082140275e-01, 1.746147361183863e-01, 1.359247902359937e-01, 1.361986924956155e-01, 9.133793067972400e-02, 3.474329769832524e-02, 1.655886038479386e-03}
			{-2.818621819038574e-02, -5.812761186717415e-02, -3.670863755821645e-02, -2.485950562577669e-02, -3.633212013266088e-02, -2.875109535907810e-02, -9.752969748920955e-03, 2.748352003115410e-03}
			{1.062263346453318e-01, 1.911270430674794e-01, 1.182057711382358e-01, -7.840072264733088e-03, -1.273182341137486e-01, -1.196800242422106e-01, -3.928969219714543e-02, 6.770144436443278e-03}
			{3.014954393745201e-02, 5.632263830133271e-02, 4.124327610966827e-02, 4.412875176403439e-02, 5.677312483391906e-02, 4.188507507998628e-02, 1.593402720459538e-02, 5.485826085207728e-04}
		1-2
			{3.317494652762720e-02, 5.169391424130379e-02, 1.066150478187663e-02, 1.743306511342016e-02, 5.419187208131251e-02, 5.661667130381742e-02, 2.840191576332380e-02, 8.820048988209366e-03}
			{3.800497537312521e-02, 6.728646762734571e-02, 7.427505917476498e-02, 3.724016698636987e-02, -1.669511387245573e-03, -1.344170365390582e-02, -6.148297967626743e-03, -2.282798658021079e-03}
			{7.795025419279168e-02, 1.943031646805977e-01, 1.657194905417208e-01, 8.696174849210209e-02, -4.621989611742797e-02, -5.148971431996089e-02, -2.419401637185591e-02, 3.982711381777846e-03}
			{5.478479457074424e-02, 1.897034834022942e-02, 4.924061824968354e-02, -1.316590022076082e-02, -3.814203261911592e-02, -4.987753622848839e-02, -1.460938042022846e-02, -6.738469693491661e-03}
		1-3
			{7.843797866744028e-02, 1.296529961352821e-01, 8.539100320831222e-02, 1.000515220870194e-01, 1.082127651672208e-01, 6.216950837438175e-02, 1.990402834129528e-02, 4.476964831839171e-03}
			{8.080940437981048e-02, 1.630349314535422e-01, 1.474535690043278e-01, 1.178807887988228e-01, 7.080873486266946e-02, 4.765403339399275e-02, 1.671374247681025e-02, 8.712328132932575e-03}
			{-2.935435251118729e-02, 4.295392531238961e-02, 9.388217257981137e-02, -4.782395378059936e-02, -9.710393661075822e-02, -2.375879175943923e-02, 4.714952584947731e-03, -6.197348645741336e-03}
			{2.102063216634978e-01, 1.665383957071351e-01, -1.293933838059484e-01, -1.320342506361697e-01, -4.865668964444164e-02, -2.869038225832127e-02, -1.087596396155282e-02, 2.082238812102607e-02}
		1-4
			{2.945864105222660e-02, 4.506122091498771e-02, 1.388287564486480e-02, 1.825236690071004e-02, 5.284415482280917e-02, 4.128916574158334e-02, 1.323758495803664e-02, 1.340339982650175e-03}
			{4.829648489315815e-02, 9.921677228167858e-02, 5.583689882982159e-02, 1.194741226090366e-02, -2.861876732574014e-02, -1.652711370002154e-02, -5.175934686355836e-03, 3.340109611561841e-03}
			{-5.984216578399829e-02, -7.700808006961840e-02, -4.432835121584146e-02, -9.037196990297533e-02, -1.499852849872368e-01, -1.236796541514130e-01, -5.732597975546411e-02, -1.608689380016827e-02}
			{1.131823819252985e-01, 1.318555370287743e-01, -3.482574324152111e-02, -7.646192115380925e-02, -1.022279183561256e-01, -9.513483844120454e-03, 1.252373789646141e-02, 1.907913043378848e-02}
		2-0
			{1.553263625489404e-02, 6.881212680923927e-02, 2.711626581197681e-02, -1.928482131585421e-02, -2.119077967782605e-02, -1.110982085595155e-02, -4.563223231324522e-03, -2.534015170961189e-03}
			{-2.482469789524237e-03, -2.301227211202509e-02, -3.464479534602637e-03, 1.618564284962025e-02, 1.241415455655773e-02, 7.539849238228391e-03, 4.097227088425789e-03, 1.744972251562394e-03}
			{-2.146914576033565e-03, -5.334615075379097e-03, -7.646193633062504e-04, 2.090793523112735e-03, 1.032414479218246e-03, 1.171630814644841e-03, 1.193317718182428e-03, 6.153780493271015e-04}
			{-2.033561932720237e-01, -2.084433475323819e-01, 5.206217025594900e-02, 9.291030116780369e-03, -8.023775965849991e-02, 1.628862061992841e-02, 8.598090595905394e-02, 5.599784250729729e-02}
		2-1
			{-2.991855313678232e-03, -1.105013762588281e-02, -1.060597519323195e-02, -5.742737795143366e-03, -2.932213742018791e-03, -1.952070303981054e-03, -1.299637501093701e-03, -3.881636297583926e-04}
			{-2.043195902331379e-01, -3.884115476101348e-02, -1.314535939855745e-01, -1.827176607276512e-01, -1.294266316919618e-01, -8.847560500993649e-02, -6.330735372260110e-02, -1.599339120238481e-02}
			{-4.939186890863831e-02, 1.446776322913406e-03, -1.563360891840561e-02, -3.025392970953953e-02, -1.826175561457001e-02, -1.313629423835619e-02, -1.065815698043180e-02, -2.899612180736351e-03}
			{-5.059576101145984e-02, -5.139856481633792e-03, -5.978255437530896e-02, 2.052590554943469e-03, 5.401606799181459e-02, 6.717334231536261e-02, 2.211946358003569e-02, 7.738732413670579e-03}
		2-2
			{1.385756781244938e-03, -1.990453563212732e-03, -3.689258999915306e-03, -3.964255278570681e-04, -3.347645569765088e-04, 1.976599477965257e-04, -3.995042883014531e-05, 1.608468488585517e-04}
			{-8.086527325967379e-03, -1.684017593150640e-02, -1.591814912743190e-02, -8.585423703998264e-03, -1.034562699811936e-02, -1.027285146844510e-03, 3.484058768598974e-03, 3.988065893378750e-03}
			{-2.822930954091319e-03, -4.743779922779981e-03, -4.673192210645314e-03, -2.521258025866854e-03, -2.873152354409379e-03, -2.036665941090332e-04, 8.216001206792407e-04, 1.070820494115680e-03}
			{-2.394429658648306e-03, -7.743485516896956e-03, 1.780173174537405e-03, -6.221573776330535e-03, -3.917166946685128e-04, -1.694026179930252e-03, 8.355864950505542e-04, 1.019664658624062e-04}
		2-3
			{8.694907161733418e-03, 2.487765276861885e-02, -1.399494723187112e-02, -1.689716507568541e-03, -9.628820986220780e-03, 8.162923322842245e-03, 2.630365464444567e-03, 4.956633903721059e-03}
			{-6.511412633284609e-02, -2.439637892747635e-01, 2.889013552718138e-01, 1.387858637939031e-01, 2.021026128236945e-01, -7.312145303297804e-02, -2.687251051731911e-02, -6.440256493786838e-02}
			{1.946520165666030e-01, 1.834761007123991e-01, -1.686350037150881e-01, -2.367183197614647e-01, -1.706184233310365e-02, 1.295038490629951e-01, 1.053296092062911e-01, 3.717834632655156e-02}
			{-1.622347558577473e-01, 8.331841190582398e-02, 7.891696562764287e-02, -6.977503259386565e-02, 6.976336745329928e-02, 3.669977651928900e-02, -6.725818960695328e-02, -9.195970074834986e-02}
		2-4
			{1.330699737830168e-02, 8.365003992133581e-03, 1.498286660186613e-02, -1.500922478488676e-02, 8.978062509783800e-03, -4.796021361038443e-03, 5.882858833624788e-03, -1.400651516718234e-02}
			{-8.332778963037654e-04, -2.497105949595159e-03, -4.147879047805285e-03, 4.948517339320858e-03, -3.285401844323494e-03, 2.727413632336116e-03, -4.584918500943996e-03, 4.027863354219338e-03}
			{9.549808815951488e-04, -1.629901445714066e-04, 6.104890011685908e-05, 5.157425080015313e-04, 2.107617267774195e-06, 7.757375576781612e-04, -9.284302203708193e-04, 3.038747191694194e-04}
			{2.650825654164377e-03, 8.220663232286360e-04, 1.544661767193141e-03, -2.396098210981721e-03, -2.668543526053111e-04, -1.638181793749907e-03, -2.641037403415718e-05, -2.972365025804234e-03}
		3-0
			{6.757342613159835e-03, 7.650632361988761e-03, 1.154958272517769e-02, 1.416395317770905e-02, 7.901535468139565e-03, 4.279572944418750e-03, 2.789398143060876e-03, 1.198129962239949e-03}
			{-2.386987306610838e-02, 1.212442439051841e-02, 3.764260273645224e-03, -3.141179784931835e-02, -1.029898763590260e-02, -1.442423364568513e-02, -3.213126492429668e-02, -1.223086399205855e-02}
			{-1.454639047183259e-02, -6.467414215427852e-02, -5.227045263432915e-02, 4.751279405189129e-03, 3.148088864763397e-02, -1.184245816242710e-02, -3.801817368992075e-02, -1.378064207813617e-02}
			{-2.499628019790200e-02, 3.498501832629908e-03, 3.561158220155126e-02, -3.363825909036464e-02, -4.496481636316883e-02, -4.955122255683521e-03, 2.035943020510209e-02, 5.873970780576333e-03}
		3-1
			{-1.140321185154576e-02, -1.610440702153642e-02, -1.536737997027857e-02, -2.136747200553133e-02, -2.453756135921246e-02, -2.070223858188709e-02, -1.109682470460913e-02, -3.194550692142960e-03}
			{9.545030537323186e-02, 2.156775955720320e-01, 1.456342619464518e-01, 1.227674819484473e-01, 1.437393349066304e-01, 1.071261556277777e-01, 4.376404237912636e-02, 7.043355096441675e-03}
			{3.474075289573244e-02, -2.776428253845746e-02, 5.682534267984129e-02, 1.592009698859900e-01, 3.200204835460224e-01, 2.531646660069413e-01, 7.319957537623487e-02, -2.290022527953348e-02}
			{-1.737694922545605e-01, -6.741200039931546e-02, 1.664680050447785e-01, 1.483752200685486e-01, 3.205119615571893e-02, -9.518157336723145e-04, 8.848473387633808e-04, -1.292340713324085e-02}
		3-2
			{5.095559489248036e-03, 4.399080299891018e-03, -8.591751763401323e-03, -6.095169234865178e-03, -7.890039084204216e-03, -1.217640263273841e-03, -2.011517783104276e-04, 1.398257125683660e-03}
			{-8.477698017493901e-02, -1.309278075353450e-01, 1.080730946425790e-01, 5.408519221764403e-02, 1.199000864103769e-01, 3.531970160129256e-03, 1.460974314424292e-04, -2.976285701104402e-02}
			{-1.355182139901053e-01, 4.274150186110504e-02, 2.211407388940363e-02, -3.582781967452523e-02, 1.387233195332818e-01, -3.321709049313722e-02, -1.244750842853631e-01, -9.319067717280864e-02}
			{1.656983544529444e-01, -9.202001577264243e-02, -3.316318972401496e-02, 1.280842209296789e-01, -8.479422737236532e-02, -3.724061857772114e-02, 8.536306017539651e-02, 1.108373193692491e-01}
		3-3
			{1.773466434642781e-03, -1.315492557465461e-03, -3.763479643934329e-03, -1.134949474194970e-03, -1.726751828215281e-03, -1.068055854879369e-03, -1.139036835241144e-03, -4.259796198411460e-04}
			{-1.354140175643962e-02, 4.554606119172987e-02, 3.280370053094118e-02, 1.966702714801492e-02, 1.727341401974235e-02, 2.931694606407662e-02, 2.178600993538453e-02, 1.579313376260438e-02}
			{-6.823751330506883e-02, -1.460665067790546e-01, -5.784013429107081e-02, 1.342534728437002e-02, 2.763757366830930e-02, 1.979848710420651e-02, 1.510267711470342e-02, 8.073286018751753e-03}
			{1.617400368358146e-02, 4.542469784694850e-02, 1.909800633805087e-02, -1.080536903083409e-03, -2.210179328129485e-03, 7.948067341808622e-04, 8.773701170344144e-05, 5.638991547794040e-04}
		3-4
			{7.956274631234354e-03, -1.249557957443834e-02, -1.326770252252378e-02, -3.293788901307456e-03, -4.841688868533672e-03, -7.952435254319696e-03, 1.066587512471238e-02, -1.303434703385033e-02}
			{-1.321132045581264e-03, 6.711919935602995e-03, 4.115458169061890e-03, -1.657075803704079e-03, 3.854981097324642e-03, 4.906530109890075e-03, -1.894861865156116e-03, 6.470625486324155e-03}
			{1.741304504696272e-04, 1.263925511820995e-03, -5.439694264216345e-05, -6.221101936353526e-04, 7.757661255614211e-04, 9.884894635464737e-04, 1.599252953776311e-04, 9.112935062931057e-04}
			{1.420892656834316e-04, -3.579819965362877e-03, -1.064502577895720e-03, -2.409262089489086e-03, -1.063541668759277e-03, -1.081219425895550e-03, 2.904902705602971e-03, -2.966621115720582e-03}
		4-0
			{7.832733176036813e-03, 7.814835676276947e-03, 6.581738257669066e-03, 5.688791765537818e-03, 2.879088362817554e-03, -3.593207803710851e-04, -1.487492595261943e-03, -5.989278779362178e-04}
			{-7.691564773613012e-02, -8.830907676922967e-02, -1.745630705659773e-02, 1.543594473022500e-02, 3.063424406243697e-02, 6.736401993990263e-02, 6.481608034848146e-02, 2.131984636859329e-02}
			{9.648388569243301e-02, 9.245948049839019e-02, -2.142564512178805e-01, -9.087350002636982e-03, 1.260882441525092e-01, 4.328159380383269e-02, -3.087719009063171e-02, -6.278058993562737e-03}
			{-2.307051282937952e-02, -3.420706625591459e-02, -8.190301864147570e-02, 1.940677959512535e-02, 4.925348230122310e-02, 5.667849563944538e-02, 3.477206360447701e-02, 3.011572418998531e-02}
		4-1
			{6.200098753710357e-03, 1.389484274666029e-02, 1.104807333130707e-02, 3.005353507363007e-03, -1.623146036232613e-03, -4.870724043339401e-04, 8.049006099185914e-04, 9.411864968574326e-04}
			{5.645963510119485e-02, 1.371676356794280e-01, 2.612556998914888e-02, -2.700910387735349e-02, -3.613060069094709e-02, -3.635394244418489e-02, -2.219776376953336e-02, -6.891139617464211e-03}
			{7.150008688626229e-02, -1.305371109753299e-01, -1.581766948613186e-01, 7.462663459838222e-02, 1.812009505957390e-01, 5.885126611713180e-02, -2.846023033220450e-02, -4.884101923404250e-02}
			{-1.003965459615453e-01, -5.128803760234131e-02, 6.004930159082959e-02, 4.268553804556081e-02, 6.542550429434464e-02, -2.245861938597982e-03, -1.037846490536828e-02, -9.939189284759356e-03}
		4-2
			{-1.296828781382889e-02, 1.232669874377908e-02, -8.155785912042869e-03, -4.001092479833645e-03, -1.595871327513097e-02, -7.164116928548509e-03, -1.017421856009486e-02, -6.014630863803746e-04}
			{6.453254775244147e-03, -3.894449050548527e-03, 1.655325129223151e-03, 4.044477454104436e-03, 3.202588174750796e-03, 8.983059368565974e-05, 2.107997947932276e-03, 2.420795282310507e-04}
			{8.719555523381370e-04, -2.579739480180632e-04, -1.014925939944513e-04, 9.412467233043710e-04, -1.332585807526852e-04, -5.197908823721093e-04, -8.268659755188910e-05, 3.264618570740604e-04}
			{-1.292282201130537e-03, 3.439469856487624e-03, -3.181431622924608e-03, -1.593947328352091e-04, -2.501159373601364e-03, -1.956539882037127e-03, -3.229230017104468e-03, -1.828848508590416e-03}
		4-3
			{-7.587072528644730e-03, -5.936958576750008e-03, -1.468551950097792e-02, -2.075588174095714e-03, 3.096762249652460e-04, -1.386385694018046e-02, 1.576347602947215e-02, 1.414658698551510e-02}
			{5.693938229814628e-03, 4.381787258233781e-03, 2.285613154347778e-03, -4.627217361150504e-04, 3.028991444691986e-04, 6.915032331692695e-03, -4.320754811592827e-03, -7.761022942478282e-03}
			{1.393470530509990e-03, 9.581849188237652e-04, -7.431614593229259e-04, -6.157388798532086e-04, 2.172575170364688e-04, 1.359661063254488e-03, -2.766878044583024e-04, -1.357615521624498e-03}
			{-2.777812491039156e-03, 4.089172855998210e-04, -4.337211716077139e-03, 7.352438761475356e-04, 1.565448885453027e-03, -2.488788663883919e-03, 3.540723566200986e-03, 3.030589946024374e-03}
		4-4
			{2.254076136007364e-03, -2.799917620120945e-03, 1.875384810578969e-03, 1.737465786025260e-03, -3.513799488139610e-04, -9.823096090360625e-04, 8.348235331560091e-05, 1.945538751729678e-04}
			{-2.692110504235670e-02, -2.774560969226726e-02, -7.358270782189716e-02, -2.764288012224008e-02, 1.216930995558956e-02, 9.486955899241015e-03, -6.422094538754784e-03, -7.804857696076442e-03}
			{2.932261052643504e-02, -6.820184738864883e-03, -1.245311194040831e-01, 4.740414958311284e-02, 1.138299532990979e-01, 7.107386852152378e-02, -1.251786754056810e-03, -1.837590474144165e-02}
			{3.331271439553792e-03, 1.258170235165279e-03, 1.364335670556409e-02, -7.598329806253079e-03, -8.859174652970090e-03, -7.655329366453265e-03, 6.134316704432170e-04, 1.449943065343390e-03}
alpha_moments_count = 350
alpha_index_basic_count = 130
alpha_index_basic = {{0, 0, 0, 0}, {0, 1, 0, 0}, {0, 0, 1, 0}, {0, 0, 0, 1}, {0, 2, 0, 0}, {0, 1, 1, 0}, {0, 1, 0, 1}, {0, 0, 2, 0}, {0, 0, 1, 1}, {0, 0, 0, 2}, {0, 3, 0, 0}, {0, 2, 1, 0}, {0, 2, 0, 1}, {0, 1, 2, 0}, {0, 1, 1, 1}, {0, 1, 0, 2}, {0, 0, 3, 0}, {0, 0, 2, 1}, {0, 0, 1, 2}, {0, 0, 0, 3}, {0, 4, 0, 0}, {0, 3, 1, 0}, {0, 3, 0, 1}, {0, 2, 2, 0}, {0, 2, 1, 1}, {0, 2, 0, 2}, {0, 1, 3, 0}, {0, 1, 2, 1}, {0, 1, 1, 2}, {0, 1, 0, 3}, {0, 0, 4, 0}, {0, 0, 3, 1}, {0, 0, 2, 2}, {0, 0, 1, 3}, {0, 0, 0, 4}, {0, 5, 0, 0}, {0, 4, 1, 0}, {0, 4, 0, 1}, {0, 3, 2, 0}, {0, 3, 1, 1}, {0, 3, 0, 2}, {0, 2, 3, 0}, {0, 2, 2, 1}, {0, 2, 1, 2}, {0, 2, 0, 3}, {0, 1, 4, 0}, {0, 1, 3, 1}, {0, 1, 2, 2}, {0, 1, 1, 3}, {0, 1, 0, 4}, {0, 0, 5, 0}, {0, 0, 4, 1}, {0, 0, 3, 2}, {0, 0, 2, 3}, {0, 0, 1, 4}, {0, 0, 0, 5}, {0, 6, 0, 0}, {0, 5, 1, 0}, {0, 5, 0, 1}, {0, 4, 2, 0}, {0, 4, 1, 1}, {0, 4, 0, 2}, {0, 3, 3, 0}, {0, 3, 2, 1}, {0, 3, 1, 2}, {0, 3, 0, 3}, {0, 2, 4, 0}, {0, 2, 3, 1}, {0, 2, 2, 2}, {0, 2, 1, 3}, {0, 2, 0, 4}, {0, 1, 5, 0}, {0, 1, 4, 1}, {0, 1, 3, 2}, {0, 1, 2, 3}, {0, 1, 1, 4}, {0, 1, 0, 5}, {0, 0, 6, 0}, {0, 0, 5, 1}, {0, 0, 4, 2}, {0, 0, 3, 3}, {0, 0, 2, 4}, {0, 0, 1, 5}, {0, 0, 0, 6}, {1, 0, 0, 0}, {1, 1, 0, 0}, {1, 0, 1, 0}, {1, 0, 0, 1}, {1, 2, 0, 0}, {1, 1, 1, 0}, {1, 1, 0, 1}, {1, 0, 2, 0}, {1, 0, 1, 1}, {1, 0, 0, 2}, {1, 3, 0, 0}, {1, 2, 1, 0}, {1, 2, 0, 1}, {1, 1, 2, 0}, {1, 1, 1, 1}, {1, 1, 0, 2}, {1, 0, 3, 0}, {1, 0, 2, 1}, {1, 0, 1, 2}, {1, 0, 0, 3}, {1, 4, 0, 0}, {1, 3, 1, 0}, {1, 3, 0, 1}, {1, 2, 2, 0}, {1, 2, 1, 1}, {1, 2, 0, 2}, {1, 1, 3, 0}, {1, 1, 2, 1}, {1, 1, 1, 2}, {1, 1, 0, 3}, {1, 0, 4, 0}, {1, 0, 3, 1}, {1, 0, 2, 2}, {1, 0, 1, 3}, {1, 0, 0, 4}, {2, 0, 0, 0}, {2, 1, 0, 0}, {2, 0, 1, 0}, {2, 0, 0, 1}, {2, 2, 0, 0}, {2, 1, 1, 0}, {2, 1, 0, 1}, {2, 0, 2, 0}, {2, 0, 1, 1}, {2, 0, 0, 2}, {3, 0, 0, 0}}
alpha_index_times_count = 969
alpha_index_times = {{0, 0, 1, 130}, {1, 1, 1, 131}, {2, 2, 1, 131}, {3, 3, 1, 131}, {1, 4, 1, 132}, {2, 5, 1, 132}, {3, 6, 1, 132}, {1, 5, 1, 133}, {2, 7, 1, 133}, {3, 8, 1, 133}, {1, 6, 1, 134}, {2, 8, 1, 134}, {3, 9, 1, 134}, {1, 10, 1, 135}, {2, 11, 1, 135}, {3, 12, 1, 135}, {1, 11, 1, 136}, {2, 13, 1, 136}, {3, 14, 1, 136}, {1, 12, 1, 137}, {2, 14, 1, 137}, {3, 15, 1, 137}, {1, 13, 1, 138}, {2, 16, 1, 138}, {3, 17, 1, 138}, {1, 14, 1, 139}, {2, 17, 1, 139}, {3, 18, 1, 139}, {1, 15, 1, 140}, {2, 18, 1, 140}, {3, 19, 1, 140}, {4, 4, 1, 141}, {5, 5, 1, 141}, {6, 6, 1, 141}, {4, 5, 1, 142}, {5, 7, 1, 142}, {6, 8, 1, 142}, {4, 6, 1, 143}, {5, 8, 1, 143}, {6, 9, 1, 143}, {5, 5, 1, 144}, {7, 7, 1, 144}, {8, 8, 1, 144}, {5, 6, 1, 145}, {7, 8, 1, 145}, {8, 9, 1, 145}, {6, 6, 1, 146}, {8, 8, 1, 146}, {9, 9, 1, 146}, {4, 10, 1, 147}, {5, 11, 1, 147}, {6, 12, 1, 147}, {4, 11, 1, 148}, {5, 13, 1, 148}, {6, 14, 1, 148}, {4, 12, 1, 149}, {5, 14, 1, 149}, {6, 15, 1, 149}, {4, 13, 1, 150}, {5, 16, 1, 150}, {6, 17, 1, 150}, {4, 14, 1, 151}, {5, 17, 1, 151}, {6, 18, 1, 151}, {4, 15, 1, 152}, {5, 18, 1, 152}, {6, 19, 1, 152}, {5, 10, 1, 153}, {7, 11, 1, 153}, {8, 12, 1, 153}, {5, 11, 1, 154}, {7, 13, 1, 154}, {8, 14, 1, 154}, {5, 12, 1, 155}, {7, 14, 1, 155}, {8, 15, 1, 155}, {5, 13, 1, 156}, {7, 16, 1, 156}, {8, 17, 1, 156}, {5, 14, 1, 157}, {7, 17, 1, 157}, {8, 18, 1, 157}, {5, 15, 1, 158}, {7, 18, 1, 158}, {8, 19, 1, 158}, {6, 10, 1, 159}, {8, 11, 1, 159}, {9, 12, 1, 159}, {6, 11, 1, 160}, {8, 13, 1, 160}, {9, 14, 1, 160}, {6, 12, 1, 161}, {8, 14, 1, 161}, {9, 15, 1, 161}, {6, 13, 1, 162}, {8, 16, 1, 162}, {9, 17, 1, 162}, {6, 14, 1, 163}, {8, 17, 1, 163}, {9, 18, 1, 163}, {6, 15, 1, 164}, {8, 18, 1, 164}, {9, 19, 1, 164}, {4, 4, 1, 165}, {5, 5, 2, 165}, {6, 6, 2, 165}, {7, 7, 1, 165}, {8, 8, 2, 165}, {9, 9, 1, 165}, {4, 10, 1, 166}, {5, 11, 2, 166}, {6, 12, 2, 166}, {7, 13, 1, 166}, {8, 14, 2, 166}, {9, 15, 1, 166}, {4, 11, 1, 167}, {5, 13, 2, 167}, {6, 14, 2, 167}, {7, 16, 1, 167}, {8, 17, 2, 167}, {9, 18, 1, 167}, {4, 12, 1, 168}, {5, 14, 2, 168}, {6, 15, 2, 168}, {7, 17, 1, 168}, {8, 18, 2, 168}, {9, 19, 1, 168}, {4, 20, 1, 169}, {5, 21, 2, 169}, {6, 22, 2, 169}, {7, 23, 1, 169}, {8, 24, 2, 169}, {9, 25, 1, 169}, {4, 21, 1, 170}, {5, 23, 2, 170}, {6, 24, 2, 170}, {7, 26, 1, 170}, {8, 27, 2, 170}, {9, 28, 1, 170}, {4, 22, 1, 171}, {5, 24, 2, 171}, {6, 25, 2, 171}, {7, 27, 1, 171}, {8, 28, 2, 171}, {9, 29, 1, 171}, {4, 23, 1, 172}, {5, 26, 2, 172}, {6, 27, 2, 172}, {7, 30, 1, 172}, {8, 31, 2, 172}, {9, 32, 1, 172}, {4, 24, 1, 173}, {5, 27, 2, 173}, {6, 28, 2, 173}, {7, 31, 1, 173}, {8, 32, 2, 173}, {9, 33, 1, 173}, {4, 25, 1, 174}, {5, 28, 2, 174}, {6, 29, 2, 174}, {7, 32, 1, 174}, {8, 33, 2, 174}, {9, 34, 1, 174}, {10, 10, 1, 175}, {11, 11, 2, 175}, {12, 12, 2, 175}, {13, 13, 1, 175}, {14, 14, 2, 175}, {15, 15, 1, 175}, {10, 11, 1, 176}, {11, 13, 2, 176}, {12, 14, 2, 176}, {13, 16, 1, 176}, {14, 17, 2, 176}, {15, 18, 1, 176}, {10, 12, 1, 177}, {11, 14, 2, 177}, {12, 15, 2, 177}, {13, 17, 1, 177}, {14, 18, 2, 177}, {15, 19, 1, 177}, {11, 11, 1, 178}, {13, 13, 2, 178}, {14, 14, 2, 178}, {16, 16, 1, 178}, {17, 17, 2, 178}, {18, 18, 1, 178}, {11, 12, 1, 179}, {13, 14, 2, 179}, {14, 15, 2, 179}, {16, 17, 1, 179}, {17, 18, 2, 179}, {18, 19, 1, 179}, {12, 12, 1, 180}, {14, 14, 2, 180}, {15, 15, 2, 180}, {17, 17, 1, 180}, {18, 18, 2, 180}, {19, 19, 1, 180}, {10, 20, 1, 181}, {11, 21, 2, 181}, {12, 22, 2, 181}, {13, 23, 1, 181}, {14, 24, 2, 181}, {15, 25, 1, 181}, {10, 21, 1, 182}, {11, 23, 2, 182}, {12, 24, 2, 182}, {13, 26, 1, 182}, {14, 27, 2, 182}, {15, 28, 1, 182}, {10, 22, 1, 183}, {11, 24, 2, 183}, {12, 25, 2, 183}, {13, 27, 1, 183}, {14, 28, 2, 183}, {15, 29, 1, 183}, {10, 23, 1, 184}, {11, 26, 2, 184}, {12, 27, 2, 184}, {13, 30, 1, 184}, {14, 31, 2, 184}, {15, 32, 1, 184}, {10, 24, 1, 185}, {11, 27, 2, 185}, {12, 28, 2, 185}, {13, 31, 1, 185}, {14, 32, 2, 185}, {15, 33, 1, 185}, {10, 25, 1, 186}, {11, 28, 2, 186}, {12, 29, 2, 186}, {13, 32, 1, 186}, {14, 33, 2, 186}, {15, 34, 1, 186}, {11, 20, 1, 187}, {13, 21, 2, 187}, {14, 22, 2, 187}, {16, 23, 1, 187}, {17, 24, 2, 187}, {18, 25, 1, 187}, {11, 21, 1, 188}, {13, 23, 2, 188}, {14, 24, 2, 188}, {16, 26, 1, 188}, {17, 27, 2, 188}, {18, 28, 1, 188}, {11, 22, 1, 189}, {13, 24, 2, 189}, {14, 25, 2, 189}, {16, 27, 1, 189}, {17, 28, 2, 189}, {18, 29, 1, 189}, {11, 23, 1, 190}, {13, 26, 2, 190}, {14, 27, 2, 190}, {16, 30, 1, 190}, {17, 31, 2, 190}, {18, 32, 1, 190}, {11, 24, 1, 191}, {13, 27, 2, 191}, {14, 28, 2, 191}, {16, 31, 1, 191}, {17, 32, 2, 191}, {18, 33, 1, 191}, {11, 25, 1, 192}, {13, 28, 2, 192}, {14, 29, 2, 192}, {16, 32, 1, 192}, {17, 33, 2, 192}, {18, 34, 1, 192}, {12, 20, 1, 193}, {14, 21, 2, 193}, {15, 22, 2, 193}, {17, 23, 1, 193}, {18, 24, 2, 193}, {19, 25, 1, 193}, {12, 21, 1, 194}, {14, 23, 2, 194}, {15, 24, 2, 194}, {17, 26, 1, 194}, {18, 27, 2, 194}, {19, 28, 1, 194}, {12, 22, 1, 195}, {14, 24, 2, 195}, {15, 25, 2, 195}, {17, 27, 1, 195}, {18, 28, 2, 195}, {19, 29, 1, 195}, {12, 23, 1, 196}, {14, 26, 2, 196}, {15, 27, 2, 196}, {17, 30, 1, 196}, {18, 31, 2, 196}, {19, 32, 1, 196}, {12, 24, 1, 197}, {14, 27, 2, 197}, {15, 28, 2, 197}, {17, 31, 1, 197}, {18, 32, 2, 197}, {19, 33, 1, 197}, {12, 25, 1, 198}, {14, 28, 2, 198}, {15, 29, 2, 198}, {17, 32, 1, 198}, {18, 33, 2, 198}, {19, 34, 1, 198}, {10, 10, 1, 199}, {11, 11, 3, 199}, {12, 12, 3, 199}, {13, 13, 3, 199}, {14, 14, 6, 199}, {15, 15, 3, 199}, {16, 16, 1, 199}, {17, 17, 3, 199}, {18, 18, 3, 199}, {19, 19, 1, 199}, {10, 20, 1, 200}, {11, 21, 3, 200}, {12, 22, 3, 200}, {13, 23, 3, 200}, {14, 24, 6, 200}, {15, 25, 3, 200}, {16, 26, 1, 200}, {17, 27, 3, 200}, {18, 28, 3, 200}, {19, 29, 1, 200}, {10, 21, 1, 201}, {11, 23, 3, 201}, {12, 24, 3, 201}, {13, 26, 3, 201}, {14, 27, 6, 201}, {15, 28, 3, 201}, {16, 30, 1, 201}, {17, 31, 3, 201}, {18, 32, 3, 201}, {19, 33, 1, 201}, {10, 22, 1, 202}, {11, 24, 3, 202}, {12, 25, 3, 202}, {13, 27, 3, 202}, {14, 28, 6, 202}, {15, 29, 3, 202}, {16, 31, 1, 202}, {17, 32, 3, 202}, {18, 33, 3, 202}, {19, 34, 1, 202}, {10, 35, 1, 203}, {11, 36, 3, 203}, {12, 37, 3, 203}, {13, 38, 3, 203}, {14, 39, 6, 203}, {15, 40, 3, 203}, {16, 41, 1, 203}, {17, 42, 3, 203}, {18, 43, 3, 203}, {19, 44, 1, 203}, {10, 36, 1, 204}, {11, 38, 3, 204}, {12, 39, 3, 204}, {13, 41, 3, 204}, {14, 42, 6, 204}, {15, 43, 3, 204}, {16, 45, 1, 204}, {17, 46, 3, 204}, {18, 47, 3, 204}, {19, 48, 1, 204}, {10, 37, 1, 205}, {11, 39, 3, 205}, {12, 40, 3, 205}, {13, 42, 3, 205}, {14, 43, 6, 205}, {15, 44, 3, 205}, {16, 46, 1, 205}, {17, 47, 3, 205}, {18, 48, 3, 205}, {19, 49, 1, 205}, {10, 38, 1, 206}, {11, 41, 3, 206}, {12, 42, 3, 206}, {13, 45, 3, 206}, {14, 46, 6, 206}, {15, 47, 3, 206}, {16, 50, 1, 206}, {17, 51, 3, 206}, {18, 52, 3, 206}, {19, 53, 1, 206}, {10, 39, 1, 207}, {11, 42, 3, 207}, {12, 43, 3, 207}, {13, 46, 3, 207}, {14, 47, 6, 207}, {15, 48, 3, 207}, {16, 51, 1, 207}, {17, 52, 3, 207}, {18, 53, 3, 207}, {19, 54, 1, 207}, {10, 40, 1, 208}, {11, 43, 3, 208}, {12, 44, 3, 208}, {13, 47, 3, 208}, {14, 48, 6, 208}, {15, 49, 3, 208}, {16, 52, 1, 208}, {17, 53, 3, 208}, {18, 54, 3, 208}, {19, 55, 1, 208}, {20, 20, 1, 209}, {21, 21, 3, 209}, {22, 22, 3, 209}, {23, 23, 3, 209}, {24, 24, 6, 209}, {25, 25, 3, 209}, {26, 26, 1, 209}, {27, 27, 3, 209}, {28, 28, 3, 209}, {29, 29, 1, 209}, {20, 21, 1, 210}, {21, 23, 3, 210}, {22, 24, 3, 210}, {23, 26, 3, 210}, {24, 27, 6, 210}, {25, 28, 3, 210}, {26, 30, 1, 210}, {27, 31, 3, 210}, {28, 32, 3, 210}, {29, 33, 1, 210}, {20, 22, 1, 211}, {21, 24, 3, 211}, {22, 25, 3, 211}, {23, 27, 3, 211}, {24, 28, 6, 211}, {25, 29, 3, 211}, {26, 31, 1, 211}, {27, 32, 3, 211}, {28, 33, 3, 211}, {29, 34, 1, 211}, {21, 21, 1, 212}, {23, 23, 3, 212}, {24, 24, 3, 212}, {26, 26, 3, 212}, {27, 27, 6, 212}, {28, 28, 3, 212}, {30, 30, 1, 212}, {31, 31, 3, 212}, {32, 32, 3, 212}, {33, 33, 1, 212}, {21, 22, 1, 213}, {23, 24, 3, 213}, {24, 25, 3, 213}, {26, 27, 3, 213}, {27, 28, 6, 213}, {28, 29, 3, 213}, {30, 31, 1, 213}, {31, 32, 3, 213}, {32, 33, 3, 213}, {33, 34, 1, 213}, {22, 22, 1, 214}, {24, 24, 3, 214}, {25, 25, 3, 214}, {27, 27, 3, 214}, {28, 28, 6, 214}, {29, 29, 3, 214}, {31, 31, 1, 214}, {32, 32, 3, 214}, {33, 33, 3, 214}, {34, 34, 1, 214}, {20, 20, 1, 215}, {21, 21, 4, 215}, {22, 22, 4, 215}, {23, 23, 6, 215}, {24, 24, 12, 215}, {25, 25, 6, 215}, {26, 26, 4, 215}, {27, 27, 12, 215}, {28, 28, 12, 215}, {29, 29, 4, 215}, {30, 30, 1, 215}, {31, 31, 4, 215}, {32, 32, 6, 215}, {33, 33, 4, 215}, {34, 34, 1, 215}, {20, 35, 1, 216}, {21, 36, 4, 216}, {22, 37, 4, 216}, {23, 38, 6, 216}, {24, 39, 12, 216}, {25, 40, 6, 216}, {26, 41, 4, 216}, {27, 42, 12, 216}, {28, 43, 12, 216}, {29, 44, 4, 216}, {30, 45, 1, 216}, {31, 46, 4, 216}, {32, 47, 6, 216}, {33, 48, 4, 216}, {34, 49, 1, 216}, {20, 36, 1, 217}, {21, 38, 4, 217}, {22, 39, 4, 217}, {23, 41, 6, 217}, {24, 42, 12, 217}, {25, 43, 6, 217}, {26, 45, 4, 217}, {27, 46, 12, 217}, {28, 47, 12, 217}, {29, 48, 4, 217}, {30, 50, 1, 217}, {31, 51, 4, 217}, {32, 52, 6, 217}, {33, 53, 4, 217}, {34, 54, 1, 217}, {20, 37, 1, 218}, {21, 39, 4, 218}, {22, 40, 4, 218}, {23, 42, 6, 218}, {24, 43, 12, 218}, {25, 44, 6, 218}, {26, 46, 4, 218}, {27, 47, 12, 218}, {28, 48, 12, 218}, {29, 49, 4, 218}, {30, 51, 1, 218}, {31, 52, 4, 218}, {32, 53, 6, 218}, {33, 54, 4, 218}, {34, 55, 1, 218}, {35, 35, 1, 219}, {36, 36, 5, 219}, {37, 37, 5, 219}, {38, 38, 10, 219}, {39, 39, 20, 219}, {40, 40, 10, 219}, {41, 41, 10, 219}, {42, 42, 30, 219}, {43, 43, 30, 219}, {44, 44, 10, 219}, {45, 45, 5, 219}, {46, 46, 20, 219}, {47, 47, 30, 219}, {48, 48, 20, 219}, {49, 49, 5, 219}, {50, 50, 1, 219}, {51, 51, 5, 219}, {52, 52, 10, 219}, {53, 53, 10, 219}, {54, 54, 5, 219}, {55, 55, 1, 219}, {56, 56, 1, 220}, {57, 57, 6, 220}, {58, 58, 6, 220}, {59, 59, 15, 220}, {60, 60, 30, 220}, {61, 61, 15, 220}, {62, 62, 20, 220}, {63, 63, 60, 220}, {64, 64, 60, 220}, {65, 65, 20, 220}, {66, 66, 15, 220}, {67, 67, 60, 220}, {68, 68, 90, 220}, {69, 69, 60, 220}, {70, 70, 15, 220}, {71, 71, 6, 220}, {72, 72, 30, 220}, {73, 73, 60, 220}, {74, 74, 60, 220}, {75, 75, 30, 220}, {76, 76, 6, 220}, {77, 77, 1, 220}, {78, 78, 6, 220}, {79, 79, 15, 220}, {80, 80, 20, 220}, {81, 81, 15, 220}, {82, 82, 6, 220}, {83, 83, 1, 220}, {0, 84, 1, 221}, {1, 85, 1, 222}, {2, 86, 1, 222}, {3, 87, 1, 222}, {1, 88, 1, 223}, {2, 89, 1, 223}, {3, 90, 1, 223}, {1, 89, 1, 224}, {2, 91, 1, 224}, {3, 92, 1, 224}, {1, 90, 1, 225}, {2, 92, 1, 225}, {3, 93, 1, 225}, {4, 85, 1, 226}, {5, 86, 1, 226}, {6, 87, 1, 226}, {5, 85, 1, 227}, {7, 86, 1, 227}, {8, 87, 1, 227}, {6, 85, 1, 228}, {8, 86, 1, 228}, {9, 87, 1, 228}, {4, 88, 1, 229}, {5, 89, 1, 229}, {6, 90, 1, 229}, {4, 89, 1, 230}, {5, 91, 1, 230}, {6, 92, 1, 230}, {4, 90, 1, 231}, {5, 92, 1, 231}, {6, 93, 1, 231}, {5, 88, 1, 232}, {7, 89, 1, 232}, {8, 90, 1, 232}, {5, 89, 1, 233}, {7, 91, 1, 233}, {8, 92, 1, 233}, {5, 90, 1, 234}, {7, 92, 1, 234}, {8, 93, 1, 234}, {6, 88, 1, 235}, {8, 89, 1, 235}, {9, 90, 1, 235}, {6, 89, 1, 236}, {8, 91, 1, 236}, {9, 92, 1, 236}, {6, 90, 1, 237}, {8, 92, 1, 237}, {9, 93, 1, 237}, {4, 88, 1, 238}, {5, 89, 2, 238}, {6, 90, 2, 238}, {7, 91, 1, 238}, {8, 92, 2, 238}, {9, 93, 1, 238}, {4, 94, 1, 239}, {5, 95, 2, 239}, {6, 96, 2, 239}, {7, 97, 1, 239}, {8, 98, 2, 239}, {9, 99, 1, 239}, {4, 95, 1, 240}, {5, 97, 2, 240}, {6, 98, 2, 240}, {7, 100, 1, 240}, {8, 101, 2, 240}, {9, 102, 1, 240}, {4, 96, 1, 241}, {5, 98, 2, 241}, {6, 99, 2, 241}, {7, 101, 1, 241}, {8, 102, 2, 241}, {9, 103, 1, 241}, {10, 88, 1, 242}, {11, 89, 2, 242}, {12, 90, 2, 242}, {13, 91, 1, 242}, {14, 92, 2, 242}, {15, 93, 1, 242}, {11, 88, 1, 243}, {13, 89, 2, 243}, {14, 90, 2, 243}, {16, 91, 1, 243}, {17, 92, 2, 243}, {18, 93, 1, 243}, {12, 88, 1, 244}, {14, 89, 2, 244}, {15, 90, 2, 244}, {17, 91, 1, 244}, {18, 92, 2, 244}, {19, 93, 1, 244}, {10, 94, 1, 245}, {11, 95, 3, 245}, {12, 96, 3, 245}, {13, 97, 3, 245}, {14, 98, 6, 245}, {15, 99, 3, 245}, {16, 100, 1, 245}, {17, 101, 3, 245}, {18, 102, 3, 245}, {19, 103, 1, 245}, {20, 104, 1, 246}, {21, 105, 4, 246}, {22, 106, 4, 246}, {23, 107, 6, 246}, {24, 108, 12, 246}, {25, 109, 6, 246}, {26, 110, 4, 246}, {27, 111, 12, 246}, {28, 112, 12, 246}, {29, 113, 4, 246}, {30, 114, 1, 246}, {31, 115, 4, 246}, {32, 116, 6, 246}, {33, 117, 4, 246}, {34, 118, 1, 246}, {0, 119, 1, 247}, {1, 120, 1, 248}, {2, 121, 1, 248}, {3, 122, 1, 248}, {4, 123, 1, 249}, {5, 124, 2, 249}, {6, 125, 2, 249}, {7, 126, 1, 249}, {8, 127, 2, 249}, {9, 128, 1, 249}, {0, 129, 1, 250}, {84, 84, 1, 251}, {85, 85, 1, 252}, {86, 86, 1, 252}, {87, 87, 1, 252}, {88, 88, 1, 253}, {89, 89, 2, 253}, {90, 90, 2, 253}, {91, 91, 1, 253}, {92, 92, 2, 253}, {93, 93, 1, 253}, {84, 119, 1, 254}, {0, 130, 1, 255}, {0, 131, 1, 256}, {0, 165, 1, 257}, {0, 199, 1, 258}, {0, 215, 1, 259}, {0, 219, 1, 260}, {1, 132, 1, 261}, {2, 133, 1, 261}, {3, 134, 1, 261}, {1, 135, 1, 262}, {2, 136, 1, 262}, {3, 137, 1, 262}, {1, 136, 1, 263}, {2, 138, 1, 263}, {3, 139, 1, 263}, {1, 137, 1, 264}, {2, 139, 1, 264}, {3, 140, 1, 264}, {1, 141, 1, 265}, {2, 142, 1, 265}, {3, 143, 1, 265}, {1, 142, 1, 266}, {2, 144, 1, 266}, {3, 145, 1, 266}, {1, 143, 1, 267}, {2, 145, 1, 267}, {3, 146, 1, 267}, {1, 166, 1, 268}, {2, 167, 1, 268}, {3, 168, 1, 268}, {1, 169, 1, 269}, {2, 170, 1, 269}, {3, 171, 1, 269}, {1, 170, 1, 270}, {2, 172, 1, 270}, {3, 173, 1, 270}, {1, 171, 1, 271}, {2, 173, 1, 271}, {3, 174, 1, 271}, {1, 175, 1, 272}, {2, 176, 1, 272}, {3, 177, 1, 272}, {1, 176, 1, 273}, {2, 178, 1, 273}, {3, 179, 1, 273}, {1, 177, 1, 274}, {2, 179, 1, 274}, {3, 180, 1, 274}, {1, 200, 1, 275}, {2, 201, 1, 275}, {3, 202, 1, 275}, {1, 216, 1, 276}, {2, 217, 1, 276}, {3, 218, 1, 276}, {4, 141, 1, 277}, {5, 142, 1, 277}, {6, 143, 1, 277}, {4, 142, 1, 278}, {5, 144, 1, 278}, {6, 145, 1, 278}, {4, 143, 1, 279}, {5, 145, 1, 279}, {6, 146, 1, 279}, {5, 141, 1, 280}, {7, 142, 1, 280}, {8, 143, 1, 280}, {5, 142, 1, 281}, {7, 144, 1, 281}, {8, 145, 1, 281}, {5, 143, 1, 282}, {7, 145, 1, 282}, {8, 146, 1, 282}, {6, 141, 1, 283}, {8, 142, 1, 283}, {9, 143, 1, 283}, {6, 142, 1, 284}, {8, 144, 1, 284}, {9, 145, 1, 284}, {6, 143, 1, 285}, {8, 145, 1, 285}, {9, 146, 1, 285}, {4, 166, 1, 286}, {5, 167, 1, 286}, {6, 168, 1, 286}, {5, 166, 1, 287}, {7, 167, 1, 287}, {8, 168, 1, 287}, {6, 166, 1, 288}, {8, 167, 1, 288}, {9, 168, 1, 288}, {4, 169, 1, 289}, {5, 170, 2, 289}, {6, 171, 2, 289}, {7, 172, 1, 289}, {8, 173, 2, 289}, {9, 174, 1, 289}, {4, 203, 1, 290}, {5, 204, 2, 290}, {6, 205, 2, 290}, {7, 206, 1, 290}, {8, 207, 2, 290}, {9, 208, 1, 290}, {4, 141, 1, 291}, {5, 142, 2, 291}, {6, 143, 2, 291}, {7, 144, 1, 291}, {8, 145, 2, 291}, {9, 146, 1, 291}, {4, 147, 1, 292}, {5, 148, 1, 292}, {5, 153, 1, 292}, {6, 149, 1, 292}, {6, 159, 1, 292}, {7, 154, 1, 292}, {8, 155, 1, 292}, {8, 160, 1, 292}, {9, 161, 1, 292}, {4, 148, 1, 293}, {5, 150, 1, 293}, {5, 154, 1, 293}, {6, 151, 1, 293}, {6, 160, 1, 293}, {7, 156, 1, 293}, {8, 157, 1, 293}, {8, 162, 1, 293}, {9, 163, 1, 293}, {4, 149, 1, 294}, {5, 151, 1, 294}, {5, 155, 1, 294}, {6, 152, 1, 294}, {6, 161, 1, 294}, {7, 157, 1, 294}, {8, 158, 1, 294}, {8, 163, 1, 294}, {9, 164, 1, 294}, {4, 175, 1, 295}, {5, 176, 2, 295}, {6, 177, 2, 295}, {7, 178, 1, 295}, {8, 179, 2, 295}, {9, 180, 1, 295}, {4, 209, 1, 296}, {5, 210, 2, 296}, {6, 211, 2, 296}, {7, 212, 1, 296}, {8, 213, 2, 296}, {9, 214, 1, 296}, {10, 181, 1, 297}, {11, 182, 2, 297}, {11, 187, 1, 297}, {12, 183, 2, 297}, {12, 193, 1, 297}, {13, 184, 1, 297}, {13, 188, 2, 297}, {14, 185, 2, 297}, {14, 189, 2, 297}, {14, 194, 2, 297}, {15, 186, 1, 297}, {15, 195, 2, 297}, {16, 190, 1, 297}, {17, 191, 2, 297}, {17, 196, 1, 297}, {18, 192, 1, 297}, {18, 197, 2, 297}, {19, 198, 1, 297}, {0, 221, 1, 298}, {0, 222, 1, 299}, {0, 238, 1, 300}, {0, 245, 1, 301}, {1, 223, 1, 302}, {2, 224, 1, 302}, {3, 225, 1, 302}, {1, 239, 1, 303}, {2, 240, 1, 303}, {3, 241, 1, 303}, {84, 131, 1, 304}, {1, 226, 1, 305}, {2, 227, 1, 305}, {3, 228, 1, 305}, {1, 242, 1, 306}, {2, 243, 1, 306}, {3, 244, 1, 306}, {4, 229, 1, 307}, {5, 230, 1, 307}, {5, 232, 1, 307}, {6, 231, 1, 307}, {6, 235, 1, 307}, {7, 233, 1, 307}, {8, 234, 1, 307}, {8, 236, 1, 307}, {9, 237, 1, 307}, {84, 165, 1, 308}, {85, 166, 1, 309}, {86, 167, 1, 309}, {87, 168, 1, 309}, {84, 199, 1, 310}, {0, 247, 1, 311}, {0, 248, 1, 312}, {119, 131, 1, 313}, {0, 251, 1, 314}, {0, 252, 1, 315}, {84, 222, 1, 316}, {131, 131, 1, 317}, {131, 165, 1, 318}, {131, 199, 1, 319}, {165, 165, 1, 320}, {131, 222, 1, 321}, {0, 255, 1, 322}, {0, 256, 1, 323}, {0, 257, 1, 324}, {0, 258, 1, 325}, {0, 259, 1, 326}, {0, 261, 1, 327}, {0, 268, 1, 328}, {0, 275, 1, 329}, {0, 289, 1, 330}, {0, 291, 1, 331}, {0, 295, 1, 332}, {1, 262, 1, 333}, {2, 263, 1, 333}, {3, 264, 1, 333}, {1, 269, 1, 334}, {2, 270, 1, 334}, {3, 271, 1, 334}, {1, 265, 1, 335}, {2, 266, 1, 335}, {3, 267, 1, 335}, {1, 272, 1, 336}, {2, 273, 1, 336}, {3, 274, 1, 336}, {1, 292, 1, 337}, {2, 293, 1, 337}, {3, 294, 1, 337}, {1, 286, 1, 338}, {2, 287, 1, 338}, {3, 288, 1, 338}, {4, 277, 1, 339}, {5, 278, 1, 339}, {5, 280, 1, 339}, {6, 279, 1, 339}, {6, 283, 1, 339}, {7, 281, 1, 339}, {8, 282, 1, 339}, {8, 284, 1, 339}, {9, 285, 1, 339}, {0, 298, 1, 340}, {0, 299, 1, 341}, {0, 300, 1, 342}, {0, 302, 1, 343}, {0, 304, 1, 344}, {0, 305, 1, 345}, {0, 308, 1, 346}, {84, 261, 1, 347}, {0, 311, 1, 348}, {0, 314, 1, 349}}
alpha_scalar_moments = 92
alpha_moment_mapping = {0, 84, 119, 129, 130, 131, 165, 199, 215, 219, 220, 221, 222, 238, 245, 246, 247, 248, 249, 250, 251, 252, 253, 254, 255, 256, 257, 258, 259, 260, 261, 268, 275, 276, 289, 290, 291, 295, 296, 297, 298, 299, 300, 301, 302, 303, 304, 305, 306, 307, 308, 309, 310, 311, 312, 313, 314, 315, 316, 322, 323, 324, 325, 326, 327, 328, 329, 330, 331, 332, 333, 334, 317, 335, 336, 337, 318, 338, 319, 320, 339, 340, 341, 342, 343, 344, 345, 346, 321, 347, 348, 349}
species_coeffs = {-4.925580086532709e+00, -3.460746807647203e+00, -2.761538433746276e+00, -4.616720049481799e+00, -6.266261888442893e+00}
moment_coeffs = {-8.739427652411977e-01, -1.797223801436236e-01, 3.028278296334442e-01, 2.214096608357617e+00, 4.777870635670129e-02, -1.492227862546355e+00, -1.710740610676806e+00, 2.469560049818365e+00, 3.475150091547673e+00, 5.170341289763825e-01, 4.681999397198588e-02, 2.636244145692127e-01, -2.160637757201399e-01, -4.593967452174756e+00, -2.418945463224258e-01, 7.232908442441155e+00, 2.191902344187422e-01, 7.072921194870271e-02, 4.895393384217381e-02, 1.690072243777275e-01, 2.950366072184898e-02, -6.741638596324281e-02, -3.327558138799900e-03, -1.326718552254785e-01, -5.492821993445827e-01, 3.535238586456385e+00, 4.248505428813846e+00, -4.180854694333787e+00, -2.980957257242129e+00, 2.972146898421090e-01, -6.658555724900809e+00, 7.182705664950344e-01, 2.272719098667655e+00, -3.754154926934680e+00, -1.876286039297159e+00, 4.905947274377371e+00, -5.631933001623620e+00, -3.868085704404706e+00, 6.198596636692465e+00, 2.605029791127397e+00, -1.223986213604977e+00, 1.792319652599301e+00, 4.438020481688563e+00, -2.632084641802835e+00, -7.394272048460230e+00, -5.971540327064047e-02, 9.550394706495604e+00, -4.365591616538926e+00, 7.177496734356001e-02, -5.705860786379440e+00, 4.778901312774933e-01, 1.056068864155446e+00, -1.268838161839970e+01, 1.909619515752598e-01, 6.381530485000908e-02, -3.620886419324088e-01, 1.484810001380323e-02, 4.621765006782112e-01, -8.801193730339578e-02, 1.270424003650901e+00, -1.228523906264861e+00, 1.194861557981630e+00, 1.415081606138486e+00, -6.300555720987612e-01, -1.008477675120821e+01, 4.798779088785509e+00, 3.172763573481189e+00, 1.331799557558049e+00, -2.985071688495837e+00, -1.489914644224484e-01, 2.111669278202025e+00, 1.104054811842921e+00, -1.042644030371328e+00, -3.645471514187597e-01, -2.808068638094959e+00, -1.016611780787769e+01, 2.104197887281475e+00, 2.502586793440163e+00, -4.286896140082092e-01, -1.232367668498147e+00, 1.249321117388652e+00, 6.142968179989773e+00, 2.138794608122117e-01, -7.479531643194270e-01, -7.468169640349937e+00, 1.682728398574657e+00, -6.512475360502962e+00, -5.897903909174481e-01, -2.343007167267442e+00, -1.127007801287117e+00, -2.359983325589579e+01, 2.413974912323774e-01}